{
    "file": "Only weights",
    "model": {
        "type": "SequentialModel",
        "name": "default_model_name",
        "layers": [
            {
                "type": "FullyConnected",
                "name": "Default FCLayer name",
                "activation": "Linear",
                "kernel": [
                    [
                        0.02319567080594165,
                        0.286078385737429,
                        -0.29620488132865275,
                        -0.32322756938367453,
                        -0.15816484694004485,
                        -0.016083638511580456,
                        -0.2779415913005621,
                        -0.4158072925048293,
                        0.026012874680712894,
                        0.23424519617240575
                    ],
                    [
                        0.01141306667087405,
                        -0.01318553466857636,
                        0.11254135548326466,
                        -0.10441404758705031,
                        0.13527841835203086,
                        0.0002751212962132099,
                        -0.4321299166165039,
                        0.08330170989257851,
                        0.41905173480134744,
                        0.2456446755056892
                    ],
                    [
                        0.1596850800810336,
                        -0.320143396214342,
                        -0.03313161029868311,
                        -0.33840027493953523,
                        0.0724917410366977,
                        0.03793988203170695,
                        -0.3199504674966305,
                        -0.33586632396602334,
                        0.35334234299618245,
                        0.2485319279118809
                    ],
                    [
                        -0.2471651125726611,
                        -0.3001772694742479,
                        -0.23293683029452644,
                        0.3221411620247217,
                        -0.03167592507423139,
                        -0.4443414232996709,
                        -0.15155024217682583,
                        -0.11007796923177915,
                        -0.1599789208699301,
                        -0.44226084560339657
                    ],
                    [
                        -0.18572461285444097,
                        -0.015085882011478646,
                        -0.013606529829395086,
                        -0.3037527151368805,
                        -0.15231100890104027,
                        0.35063070207784147,
                        -0.16165495345230074,
                        0.1347036922373332,
                        0.3896390560921336,
                        0.3667560362344852
                    ],
                    [
                        -0.09388994475461038,
                        -0.3621045417381126,
                        0.02281157677518253,
                        0.358644334851058,
                        -0.07202054375982297,
                        0.004613158044436516,
                        -0.22118771857920774,
                        -0.0035599007559138363,
                        0.3153478395399805,
                        0.10458007136296327
                    ],
                    [
                        -0.30173816241807,
                        0.38278846685159545,
                        -0.0037841493556406425,
                        0.0780329172397542,
                        -0.2061549316110988,
                        -0.32808670679461277,
                        0.2621858869558435,
                        0.05810121448652111,
                        -0.33909501707643486,
                        -0.05621375585520355
                    ],
                    [
                        0.04353228154433608,
                        -0.24411261865626735,
                        0.17231138998246015,
                        0.29068734779739375,
                        0.06937559996029935,
                        0.004427852600756899,
                        0.1532355905152371,
                        -0.15671206052107117,
                        -0.25326609496772357,
                        -0.2976596426070931
                    ],
                    [
                        -0.32326060668063383,
                        -0.17250041837834046,
                        -0.19763036703098846,
                        -0.39650118990156613,
                        -0.06477202905006063,
                        -0.29041373453936464,
                        -0.24258387748938753,
                        0.2955141534834232,
                        -0.24614135179308136,
                        0.2847795181639176
                    ],
                    [
                        0.0896061521013472,
                        -0.2691197963463938,
                        -0.1320009328576185,
                        0.31641911069388623,
                        0.332020354522603,
                        0.296961505748167,
                        0.0010882749830321004,
                        -0.32581994168015477,
                        -0.24320819838892127,
                        0.08404257191075953
                    ],
                    [
                        0.3846589308583233,
                        0.1697852441715098,
                        -0.07714594808324932,
                        -0.3167472312282509,
                        0.18558896104305905,
                        0.29291130862014286,
                        -0.17961532396396457,
                        0.33578383857219,
                        -0.0010279863893741248,
                        0.1864490417781694
                    ],
                    [
                        0.4156044549016353,
                        -0.27873060768973923,
                        0.01741149524277741,
                        -0.13344938150751812,
                        -0.3959616677113355,
                        0.024366797024136466,
                        0.1130684363143904,
                        -0.2971991258828569,
                        -0.31539230143849306,
                        0.08872825522379052
                    ],
                    [
                        -0.36380442099328236,
                        0.07409265681136196,
                        0.36604823943588943,
                        0.17631712347639233,
                        0.048138737906884554,
                        -0.15429734402448259,
                        0.18762153327198888,
                        0.388802695038822,
                        -0.4162106964698904,
                        0.1294693765507719
                    ],
                    [
                        -0.03148520223022522,
                        -0.19582748515246073,
                        -0.06449560215047223,
                        -0.022923356502635106,
                        -0.05920586640697739,
                        -0.30620457798241596,
                        0.27219282224037716,
                        -0.05854512593904643,
                        -0.17927147069175803,
                        -0.3484278799523491
                    ],
                    [
                        -0.3996058563695757,
                        -0.0116607595928363,
                        0.40621165615612226,
                        0.01468678809548718,
                        0.005692870370510861,
                        -0.1359184397227889,
                        0.1883794506566175,
                        0.311578253391216,
                        -0.007720021929816967,
                        -0.18466816539698444
                    ],
                    [
                        0.033324892515649795,
                        0.26737407013026265,
                        0.05473011560554081,
                        0.3320041558778953,
                        0.23488382521936796,
                        -0.2677311684304583,
                        0.3210728956777236,
                        -0.20225635406669695,
                        -0.21695535125286175,
                        0.3023320794058066
                    ],
                    [
                        -0.1981778644267453,
                        0.20770189386021015,
                        -0.1699066597879781,
                        0.29953196214201133,
                        -0.4113527638079675,
                        -0.3210350993120945,
                        0.18471602988531227,
                        -0.35042834980527887,
                        -0.08092832343232481,
                        0.06769600831822015
                    ],
                    [
                        -0.2107124891474204,
                        -0.11008276197129674,
                        0.385200076010725,
                        -0.30438937168546953,
                        -0.26315535266949575,
                        -0.41236098701593527,
                        0.34786362334148285,
                        0.10790236822425464,
                        0.32144665390505917,
                        -0.2167349300588046
                    ],
                    [
                        -0.31230653754043936,
                        -0.3380511182164211,
                        -0.38082763463488994,
                        -0.0129964799942765,
                        -0.3332038355074675,
                        -0.11338254550400484,
                        -0.10132411257396329,
                        0.35355815273958263,
                        -0.4000249523764346,
                        0.4210962539139526
                    ],
                    [
                        -0.04624484141495422,
                        0.3853209568925478,
                        -0.2273696999916513,
                        0.18110883507911496,
                        -0.043522932135317105,
                        0.03509775355056127,
                        -0.0287237771213798,
                        -0.35685849718622076,
                        0.015607913558737141,
                        -0.28237130651014375
                    ]
                ],
                "bias": [
                    0.0,
                    0.0,
                    0.0,
                    0.0,
                    0.0,
                    0.0,
                    0.0,
                    0.0,
                    0.0,
                    0.0
                ]
            },
            {
                "type": "FullyConnected",
                "name": "Default FCLayer name",
                "activation": "Linear",
                "kernel": [
                    [
                        -0.2781270542114973,
                        0.12019726672149167,
                        0.30012546880198276,
                        0.009665852711628897,
                        0.551656837993837
                    ],
                    [
                        -0.24288389233221258,
                        -0.0767640512841764,
                        -0.08062691216273099,
                        0.05376836747561675,
                        0.1701706050101195
                    ],
                    [
                        -0.009225931686876021,
                        0.4763360462131666,
                        -0.07390525437983753,
                        -0.14640265938910124,
                        -0.37010840530007116
                    ],
                    [
                        -0.1780350395377715,
                        0.5004168805762134,
                        0.42358554863800124,
                        -0.5919821113829472,
                        0.5518617557824431
                    ],
                    [
                        -0.13197684553176736,
                        0.2561793768694278,
                        0.21549711498601032,
                        0.17706316367877406,
                        -0.6285178555036016
                    ],
                    [
                        0.18139669815887638,
                        -0.5397306462748869,
                        0.03772408570403063,
                        -0.45404298932836745,
                        0.4753144849340559
                    ],
                    [
                        0.5098357607194709,
                        -0.5394528704566912,
                        -0.029811158011989747,
                        0.1511198536871753,
                        0.1127305448432464
                    ],
                    [
                        -0.6289926087068801,
                        -0.49161480776988,
                        -0.4807705869109812,
                        0.035555051261161874,
                        -0.36257521444672247
                    ],
                    [
                        0.4390356637290248,
                        -0.04665317598815044,
                        0.4141060099632342,
                        0.12517205072881177,
                        0.30324095243820137
                    ],
                    [
                        0.5804227799340683,
                        -0.48170189731615504,
                        0.1564339925590097,
                        -0.625447726023603,
                        -0.07538562236975277
                    ]
                ],
                "bias": [
                    0.0,
                    0.0,
                    0.0,
                    0.0,
                    0.0
                ]
            },
            {
                "type": "FullyConnected",
                "name": "Default FCLayer name",
                "activation": "Softmax",
                "kernel": [
                    [
                        0.19855255475245626,
                        0.4554050312196436
                    ],
                    [
                        -0.8767384321130116,
                        0.5535051420923482
                    ],
                    [
                        0.03421765548097766,
                        0.1680566692040808
                    ],
                    [
                        0.6120958405607848,
                        0.38596573217860497
                    ],
                    [
                        0.04956396670396701,
                        0.1958596226290541
                    ]
                ],
                "bias": [
                    0.0,
                    0.0
                ]
            }
        ]
    }
}