{
    "file_type": "Only weights",
    "model": {
        "type": "SequentialModel",
        "name": "default_model_name",
        "layers": [
            {
                "type": "FullyConnected",
                "name": "Default FCLayer name",
                "activation": "Linear",
                "kernel": [
                    [
                        -0.009492736195723217,
                        0.362682712241616,
                        0.3365194366552861,
                        -0.29582597504792607,
                        0.20584265871774526,
                        -0.34742028951154125,
                        -0.42118459545364784,
                        -0.40451086622097765,
                        -0.14489102369297918,
                        0.14879594191685935
                    ],
                    [
                        -0.3021293565495547,
                        -0.10698130694592406,
                        -0.15726078809286365,
                        0.19165228450252764,
                        0.31839247483448724,
                        -0.1511594334362497,
                        -0.039897133412735986,
                        0.015429461853442905,
                        -0.3515545804534631,
                        -0.13784826563799907
                    ],
                    [
                        -0.024718309711999176,
                        0.31015921339528024,
                        -0.32172320358324774,
                        -0.44125061864284304,
                        0.23369341839148733,
                        -0.24567822977796716,
                        0.4073525935590126,
                        0.40914223231225505,
                        0.4378927974812363,
                        0.20086628768387332
                    ],
                    [
                        -0.43752809305411305,
                        0.32081565465583145,
                        0.10916030326750809,
                        -0.26616145278550973,
                        -0.0017721734839545311,
                        -0.16890906047664533,
                        -0.06811249593495688,
                        -0.42082105138493,
                        -0.17430566905946837,
                        0.18365542140515506
                    ],
                    [
                        -0.07529471002301347,
                        -0.23409916807534636,
                        0.2636565787400131,
                        -0.07757297329375373,
                        0.023894311942283863,
                        0.26278657879105977,
                        0.14779959537524628,
                        0.4194072616421361,
                        0.33048346860245287,
                        -0.13998090243827827
                    ],
                    [
                        -0.377118119435559,
                        -0.42078261468215583,
                        -0.21858742252026073,
                        0.14850622939990604,
                        0.009844360114201922,
                        0.34142801999671196,
                        0.4332050716716039,
                        0.07907300213009644,
                        0.05338837195317009,
                        0.4095746456603904
                    ],
                    [
                        0.2501175135095705,
                        -0.4002173129774622,
                        0.23550067011163273,
                        0.26693416617054117,
                        0.3590076267724726,
                        -0.2846240148101521,
                        0.35798808892863837,
                        0.37234911372824747,
                        -0.23867372105930457,
                        0.019883539152496688
                    ],
                    [
                        0.16915126989384272,
                        -0.274712524437975,
                        -0.34222357849711027,
                        -0.29858293716382334,
                        -0.3375653652978678,
                        0.12237385101548298,
                        0.07864312256364131,
                        0.24169676912055932,
                        0.4177178486794569,
                        0.0054867509898554045
                    ],
                    [
                        -0.05979024424093787,
                        0.018668357945793745,
                        0.3173684719618784,
                        -0.41427254352396,
                        0.12392714922743703,
                        0.17537373589775124,
                        -0.15865309946159684,
                        -0.3003258442624046,
                        0.2614561246258596,
                        0.02870664099220771
                    ],
                    [
                        0.034152015654287105,
                        0.16783967731986998,
                        -0.3726153948665818,
                        -0.20571025360524858,
                        0.40218867308323186,
                        0.363296038024888,
                        -0.41630071075284164,
                        -0.3522853030496096,
                        -0.0697839068485201,
                        0.2506125160972061
                    ],
                    [
                        0.39654534549130876,
                        -0.4438125181572178,
                        0.33113880483815933,
                        0.16163105980601639,
                        -0.11358032499290205,
                        0.10551222413488487,
                        0.33802116509370245,
                        0.1327316367996179,
                        0.314544780195221,
                        0.08058292963076746
                    ],
                    [
                        0.36151273869827544,
                        -0.044611203785744014,
                        -0.35708676380663795,
                        0.3492066574893817,
                        -0.2843888455536727,
                        -0.09201396301306702,
                        -0.018818611334860125,
                        0.44111915056775214,
                        -0.3552846645369282,
                        0.2470848471028581
                    ],
                    [
                        0.20586644603808785,
                        -0.0500147385655077,
                        0.4036249359819947,
                        -0.1909322000420673,
                        -0.3834958140291464,
                        0.31643559038669994,
                        -0.4465290573748381,
                        -0.22387542333100893,
                        -0.17730261113652684,
                        -0.35819305182409095
                    ],
                    [
                        0.26878728389232737,
                        -0.07973371447170469,
                        0.4212695337685945,
                        0.3151668460906453,
                        -0.20573307916683153,
                        -0.1631222083713092,
                        0.28559759430966364,
                        -0.10431944630054957,
                        0.28910219417393773,
                        0.42905913979003646
                    ],
                    [
                        -0.41134983112221124,
                        -0.2754895573330923,
                        -0.12068637351107298,
                        0.17553031380548373,
                        0.248687594119192,
                        0.016955626969508364,
                        0.08358216037330363,
                        0.05006310950813697,
                        0.23109623883806057,
                        -0.04622905752731371
                    ],
                    [
                        -0.0601474103146164,
                        -0.11342901745105471,
                        -0.35987403751418323,
                        -0.3511757036728477,
                        -0.41793785427462404,
                        -0.12415721166344773,
                        0.18590445708317266,
                        0.15630664271328115,
                        0.043838830236310466,
                        -0.3779790855694491
                    ],
                    [
                        0.21856076494070759,
                        0.10609721965705882,
                        -0.4449852844546608,
                        -0.15005083285552495,
                        -0.24156146691561717,
                        -0.0042262281177044,
                        0.24362981172235015,
                        0.12388140777077222,
                        -0.3752411923973492,
                        0.2924146588560947
                    ],
                    [
                        0.4039326067628622,
                        -0.19555980092823472,
                        -0.24435669067841634,
                        -0.03581761664703603,
                        -0.006847047442011256,
                        -0.03358795002331871,
                        0.27556317999195673,
                        -0.42755751721370383,
                        0.2208642874840136,
                        0.003907134574920479
                    ],
                    [
                        -0.2355361698904023,
                        0.10975067428028246,
                        0.23320363941580508,
                        0.10404593426836811,
                        -0.1761039788076051,
                        -0.1455597058119275,
                        -0.3879316996899821,
                        -0.33894156987648105,
                        -0.3457793409986253,
                        0.0795528618978853
                    ],
                    [
                        -0.38419495723463515,
                        -0.010314540561299934,
                        -0.40625188028941833,
                        0.003502164904185645,
                        0.25092745200291794,
                        0.3759651429482825,
                        0.05552083447353068,
                        0.19607879702880954,
                        0.2228228641506857,
                        -0.3182941718607679
                    ]
                ],
                "bias": [
                    0.0,
                    0.0,
                    0.0,
                    0.0,
                    0.0,
                    0.0,
                    0.0,
                    0.0,
                    0.0,
                    0.0
                ]
            },
            {
                "type": "FullyConnected",
                "name": "Default FCLayer name",
                "activation": "Linear",
                "kernel": [
                    [
                        -0.42332301457723,
                        -0.0389860458150737,
                        -0.14599652078136183,
                        0.33585160052070717,
                        0.3470588714286823
                    ],
                    [
                        -0.3450615392796911,
                        -0.5494575574537257,
                        -0.12592063049640423,
                        -0.36996754178517677,
                        0.009933769888532007
                    ],
                    [
                        0.19459012477019333,
                        0.44421789992253957,
                        -0.030918290524644232,
                        -0.6235526993983027,
                        0.1635821943441058
                    ],
                    [
                        -0.26504640464434986,
                        -0.4849369572924039,
                        -0.2113364492190941,
                        0.1760130304047023,
                        -0.1844529202054036
                    ],
                    [
                        0.08274352583763389,
                        -0.24810042581945696,
                        -0.43617202861824195,
                        0.6114210918121444,
                        0.23428381869403903
                    ],
                    [
                        -0.23304593629690062,
                        -0.05512647915441826,
                        0.08608511961387655,
                        -0.6302362760132058,
                        -0.44382404367915096
                    ],
                    [
                        0.06344897181036402,
                        0.2806422110798831,
                        -0.47113815738654485,
                        0.4234712536827475,
                        -0.4137503330989569
                    ],
                    [
                        0.09630820668225248,
                        -0.3066057017722524,
                        -0.5994596846396114,
                        -0.5528925355024242,
                        0.18750781364786095
                    ],
                    [
                        0.03633011238077333,
                        -0.23071219230363782,
                        0.3795469656617373,
                        0.04886020227848775,
                        0.5688730471669018
                    ],
                    [
                        -0.1098498426391239,
                        0.1625340831694395,
                        0.31543383323719687,
                        0.21612067034419213,
                        0.05078602758897832
                    ]
                ],
                "bias": [
                    0.0,
                    0.0,
                    0.0,
                    0.0,
                    0.0
                ]
            },
            {
                "type": "FullyConnected",
                "name": "Default FCLayer name",
                "activation": "Softmax",
                "kernel": [
                    [
                        -0.2859572048209058,
                        -0.8303229972730053
                    ],
                    [
                        0.4098356378689063,
                        0.6873164814973414
                    ],
                    [
                        0.580614631574901,
                        0.48776016116200216
                    ],
                    [
                        -0.06398183648344935,
                        -0.2697035118419656
                    ],
                    [
                        -0.1895399862518906,
                        0.7201744604876901
                    ]
                ],
                "bias": [
                    0.0,
                    0.0
                ]
            }
        ]
    }
}