{
    "file_type": "Only weights",
    "model": {
        "name": "loadtest",
        "type": "SequentialModel",
        "input_shape": 30,
        "layers": [
            {
                "type": "FullyConnected",
                "name": "Default FCLayer name",
                "units": 64,
                "activation": "Linear",
                "kernel": [
                    [
                        0.040550474897198874,
                        -0.21228028775602187,
                        -0.24786260961177187,
                        -0.17922841659712635,
                        0.1641848409964065,
                        -0.24134548129982605,
                        0.026340782257408046,
                        0.04883432162092105,
                        0.06894725568952947,
                        -0.009293484741851765,
                        0.2318472487169676,
                        0.1418918448494611,
                        -0.24766225790884408,
                        -0.1568698751166791,
                        -0.12374833678334834,
                        0.03715199748175896,
                        0.17532379245686952,
                        0.21205547687654802,
                        0.20425723299916843,
                        -0.1582579664705642,
                        0.0765430920466067,
                        0.08626800136363094,
                        -0.08126929308401676,
                        0.21462673742322896,
                        0.009351202176689055,
                        -0.07887535906803242,
                        0.09454958251421264,
                        -0.027694080240954877,
                        -0.1043909807236244,
                        -0.16648511240024078,
                        0.23512758515499682,
                        0.21512342171853083,
                        0.09202048553868664,
                        -0.013352432179303764,
                        0.19870743237523825,
                        0.019920877890122868,
                        -0.22650760387361485,
                        -0.2207758231704432,
                        -0.13530463347754193,
                        0.14553917882937267,
                        0.014195240884340099,
                        -0.034198790849218175,
                        0.030858848152447493,
                        0.14482677481857092,
                        0.2134143261902129,
                        0.15424954205187336,
                        0.21281724103625277,
                        0.15086338369223973,
                        0.2038551654564691,
                        0.21261537655672952,
                        0.12018380344707208,
                        -0.24713869190045545,
                        -0.04701223553944886,
                        0.19911760472075157,
                        -0.061472782259651276,
                        0.13822126463594064,
                        0.11137905835498729,
                        0.04698576676232524,
                        0.05151485538859546,
                        0.2404343679637198,
                        0.1338177666438955,
                        0.11547908076269292,
                        -0.08386063562626414,
                        0.17550072411094325
                    ],
                    [
                        -0.1307639659966331,
                        -0.10000803193002933,
                        -0.09565038740203233,
                        0.04430057050429925,
                        0.1677176343205367,
                        -0.14919694661061517,
                        -0.09147920344163979,
                        0.027665561484436663,
                        0.04887207263990356,
                        0.17061333257329742,
                        -0.012810928446823605,
                        0.14865034271149136,
                        0.10706001950329591,
                        -0.1731041756707393,
                        -0.025316348555384394,
                        -0.20752493484098075,
                        -0.06568421711145206,
                        -0.24825018088962922,
                        0.1456299666558653,
                        -0.24090055521518547,
                        0.17379246100221674,
                        -0.13684883952649107,
                        -0.16206541003431824,
                        0.1763478773997113,
                        0.17258865642675109,
                        0.23668748296853942,
                        0.18238573183370677,
                        -0.24522644254458276,
                        0.03335797529008899,
                        -0.09343598802360323,
                        -0.02347303512936122,
                        0.007447196821348867,
                        -0.17302564118958152,
                        -0.2505056933539653,
                        0.07405432373718296,
                        -0.13781357053394178,
                        0.1727135415502517,
                        -0.20883529404490686,
                        0.2331599168716202,
                        0.11073592469814358,
                        -0.17975926595151534,
                        0.23520768058827446,
                        0.17749125059397475,
                        0.24028384607823378,
                        -0.01636964491990503,
                        -0.082747459407024,
                        0.23661155287669466,
                        0.17496690554213307,
                        -0.08686021794236584,
                        -0.24092646275523175,
                        0.0470758501721959,
                        -0.20267725417906624,
                        0.11943086886399418,
                        -0.23096058538147057,
                        0.06698842853796322,
                        -0.14734043642744613,
                        0.03369021292539254,
                        -0.04464047492307449,
                        0.14565057475053322,
                        -0.23239023694259034,
                        0.10816893780534514,
                        -0.185012943216697,
                        0.07806104333839642,
                        0.0032771932189840647
                    ],
                    [
                        -0.14639730500128756,
                        0.08361110596498961,
                        -0.018243440559756713,
                        -0.12007649131572562,
                        0.1906483175036155,
                        -0.1671125130685453,
                        0.1557581476311521,
                        0.07885028197432531,
                        -0.2009243842359899,
                        -0.12718003904441894,
                        -0.15843744123678455,
                        0.17188261677528266,
                        0.0008460030552726039,
                        -0.07693371027130766,
                        -0.10330515826121586,
                        0.16745443866136067,
                        -0.054190557253305044,
                        -0.023039998609608592,
                        0.08117201826919451,
                        -0.2427032809919755,
                        -0.16157100759014173,
                        -0.14374641700960866,
                        0.06515296154370537,
                        -0.07173516085210024,
                        0.17995226196062075,
                        -0.10124767157467165,
                        -0.1648241438935767,
                        0.22362051900077545,
                        -0.2290721145551612,
                        0.04115594182573645,
                        0.1059704634887309,
                        -0.1674293863392089,
                        -0.0506145981974552,
                        0.07673235181124205,
                        -0.13050676416428372,
                        -0.052844614186008804,
                        -0.026509756562826836,
                        0.24540353913094104,
                        0.04858827490267953,
                        0.036970158061333025,
                        -0.07241858872176954,
                        -0.059909886745939944,
                        -0.08315799275567701,
                        -0.16762587921474237,
                        -0.021576127758998198,
                        -0.16526160004059248,
                        0.2178706346642454,
                        -0.24546954725285408,
                        0.2307914606517506,
                        -0.006763421315512219,
                        0.06680242223946908,
                        0.03833532449085697,
                        -0.17860255227776617,
                        0.15689716649058694,
                        0.24270905813822846,
                        -0.1581195325990657,
                        0.10373809154450137,
                        -0.1437056851312443,
                        0.01762935719048092,
                        0.015413024616504789,
                        -0.2370375695441467,
                        0.2334665666107994,
                        0.1187454065441435,
                        0.17904779439850038
                    ],
                    [
                        0.15343249030358325,
                        -0.04638053306208387,
                        0.03253962686315315,
                        -0.0994465753103034,
                        0.07534662115863561,
                        0.20996470417600666,
                        -0.10005249837781671,
                        -0.04227768298001183,
                        0.1885155074047392,
                        0.09021202359489039,
                        -0.06732543749599931,
                        -0.159949846813909,
                        0.08121458281407229,
                        -0.07022493973338775,
                        -0.1936526785147475,
                        0.2044213217928476,
                        0.16988314401482335,
                        0.1494918008788319,
                        0.14616273219979714,
                        -0.050784282385928525,
                        0.1609766871673654,
                        0.13740695303210315,
                        -0.12676608683215088,
                        0.04123154918147576,
                        0.006475915493007023,
                        0.04675276016080743,
                        -0.18687229761481278,
                        0.13729094178246398,
                        -0.044970422896340234,
                        0.10615593046030586,
                        -0.19197738835036532,
                        0.2021105423586449,
                        0.10436836072921513,
                        -0.05471046589730291,
                        0.15677807442981823,
                        0.12909289240540212,
                        -0.18811295154385937,
                        -0.22269080992564738,
                        -0.09958748591409891,
                        -0.17504536403036142,
                        0.014514795673141845,
                        -0.07515821673099937,
                        -0.12860822935817107,
                        0.024463807409620286,
                        0.2320154541570299,
                        -0.21532973184091922,
                        0.09964211815484808,
                        -0.20560916781236727,
                        0.10692980592128165,
                        0.2354357212114238,
                        0.1355113291601292,
                        -0.06464934181808216,
                        0.21882835685728208,
                        -0.22555244590428136,
                        -0.25052525326554104,
                        -0.1789873782593317,
                        -0.04198842458475299,
                        -0.05101027509049652,
                        0.08190527673803666,
                        -0.025534010820333852,
                        -0.06391237509954639,
                        0.15695583436732363,
                        -0.09603561064529187,
                        0.1177288463036335
                    ],
                    [
                        -0.07228312879568552,
                        0.032750540092944924,
                        0.13840614857608047,
                        0.11379982375178577,
                        0.08787922909508594,
                        -0.13671866014364228,
                        0.2156672850667391,
                        -0.16177852024101527,
                        -0.05060065064969993,
                        -0.14503697815099897,
                        0.06309637989194339,
                        0.03063115729463156,
                        -0.14319444923977115,
                        -0.16748036751832968,
                        0.21145066220099645,
                        -0.07045743931521761,
                        0.1139074607907471,
                        -0.031450364743669884,
                        -0.23135126136006898,
                        -0.19367343087373665,
                        -0.16594399654727887,
                        -0.21007173112229663,
                        0.05176257506236648,
                        -0.11680307176876445,
                        -0.06341113747133809,
                        0.2272409060637552,
                        0.024086567321797092,
                        -0.02560091786834165,
                        0.21496661028490333,
                        0.08953449440683747,
                        0.03959697493851322,
                        -0.01265791158468016,
                        -0.21081394507833567,
                        0.09082040902245081,
                        0.001642251705065434,
                        0.17359342066675904,
                        -0.19326158980089383,
                        -0.19072380592380134,
                        -0.18765295351807326,
                        -0.18680802938108848,
                        -0.13761686301631781,
                        0.17285866643805337,
                        0.09333264442970413,
                        -0.22719803907656722,
                        0.13078332345723986,
                        -0.07794988817558951,
                        -0.020144866945149276,
                        0.228168483523707,
                        -0.24301562365713805,
                        -0.20075647219762022,
                        -0.03295898396154054,
                        0.16131296003272783,
                        0.17476000757951432,
                        0.25156795804452226,
                        0.04229252444941256,
                        -0.004377657321111561,
                        0.1706212351218211,
                        -0.24777948093470686,
                        -0.06186366278762173,
                        0.18810393850493173,
                        0.16134369926663034,
                        -0.09593284188473353,
                        0.1918609378850039,
                        -0.08698797525756519
                    ],
                    [
                        -0.23801044168056498,
                        -0.029780158526403366,
                        -0.07167596451829758,
                        0.23089764809615715,
                        0.10212939205234495,
                        -0.08160145640549873,
                        -0.18030528420478933,
                        -0.10073091146135607,
                        0.21942102886023002,
                        0.15768857929771152,
                        -0.11486213873644469,
                        0.1209251352165654,
                        -0.22061877064038238,
                        0.22776363082386697,
                        0.12239895184433486,
                        -0.12525567832312445,
                        -0.05587369788762317,
                        0.030225011737097296,
                        -0.2108407599139767,
                        -0.06840142064412894,
                        0.1402156834331506,
                        0.013792854447474967,
                        -0.0704079317393077,
                        0.0855285901854625,
                        -0.012187245420390597,
                        -0.06037741860334225,
                        0.25127723436369964,
                        0.20080725213969552,
                        -0.23290966069755212,
                        0.13243772860862352,
                        0.19472623847221082,
                        -0.11030615704324442,
                        -0.1503385076938661,
                        -0.12535784373180903,
                        0.1835903883615549,
                        0.13804974349477267,
                        -0.05612927163021339,
                        -0.20548339351304487,
                        0.09699649472537919,
                        0.13744992627960756,
                        0.05318629832775179,
                        0.16848562693017255,
                        -0.06047139603734317,
                        0.10167125121742587,
                        0.0043535164198509335,
                        0.01601882283049816,
                        -0.12147910490862884,
                        -0.21894379008551593,
                        0.010918082526628736,
                        -0.24862293141019187,
                        0.10071933453015625,
                        -0.20625886352156134,
                        -0.12775270295765034,
                        0.1875340641830161,
                        0.22263405260651464,
                        0.025696068746259237,
                        0.079945412458505,
                        0.2025268731172471,
                        -0.07949484420919017,
                        0.03139675632604588,
                        0.23144027497933156,
                        -0.07603076203077455,
                        -0.12683521428261374,
                        -0.15557225429294322
                    ],
                    [
                        -0.09711146941648008,
                        0.08996438805893003,
                        -0.1746048012054815,
                        -0.081411722314851,
                        0.014999644859656935,
                        0.19839668677900413,
                        -0.2357758764663766,
                        -0.024767100205552478,
                        -0.17568930644368208,
                        -0.18176673841509405,
                        -0.17052011878799261,
                        0.04848023963631132,
                        -0.09316938174534162,
                        0.1813381410983364,
                        -0.20327066588914428,
                        0.09147629150926129,
                        -0.17080982152367497,
                        0.06699073018924612,
                        0.029836542282375922,
                        -0.11959260776030528,
                        0.183703203449396,
                        0.22690919777756757,
                        -0.16464404753049539,
                        -0.09956823105302756,
                        0.17187227100195585,
                        0.011643062344291133,
                        -0.24112051415054353,
                        0.024820263725485847,
                        -0.09753492445478648,
                        -0.2024588100616578,
                        0.15346887548812932,
                        -0.12305335231829506,
                        0.09971160230510112,
                        0.14192445597198294,
                        0.23961032252385506,
                        0.13349391144801775,
                        -0.09804469896014065,
                        -0.08630559062318832,
                        0.06739745078471665,
                        -0.16617568533547622,
                        0.06914305833171153,
                        0.19151911421196832,
                        0.19797499633824167,
                        -0.2440471300091126,
                        0.23960224475154718,
                        -0.090753633922241,
                        0.15788811437794353,
                        0.17111630770743552,
                        0.03082471964402439,
                        -0.1580895678400728,
                        -0.0018995820876917535,
                        -0.039733834096962184,
                        -0.011039494568173852,
                        0.19212033260166322,
                        0.10727127083080013,
                        0.14388671203956943,
                        -0.13847195141381546,
                        -0.07754298293413833,
                        -0.06959614979547041,
                        -0.10478655389343702,
                        -0.13354845017733086,
                        0.1911209190031931,
                        -0.1611714242452026,
                        -0.1934712505573202
                    ],
                    [
                        0.21005559845123412,
                        0.04787646439725546,
                        0.06306197248700773,
                        -0.10453709469265599,
                        0.13950466976456138,
                        0.1807547163517434,
                        0.12208615529506595,
                        -0.12267961521766607,
                        0.009215415596165344,
                        0.10653773126684324,
                        0.04538528827024835,
                        0.22524021427089602,
                        0.05532914056683136,
                        -0.1926849560193473,
                        0.07988124645384043,
                        0.21232072114341788,
                        0.02608495138923944,
                        0.1195928868040142,
                        0.08920303648665245,
                        0.10040357891050156,
                        0.011043280397830035,
                        -0.19416502618369819,
                        0.21452081181213206,
                        -0.012287567035243557,
                        0.053901659774024835,
                        -0.026837805129672654,
                        -0.09310614979667214,
                        0.012066125098698033,
                        -0.05282952012574621,
                        0.1889142212295582,
                        -0.2058572510677648,
                        -0.13316367960798584,
                        0.2204820524219982,
                        -0.05403771318524567,
                        0.2315828510380069,
                        -0.24465881348887605,
                        -0.16626080803783028,
                        0.2015260517233302,
                        0.15681952830031953,
                        0.2336862142614649,
                        0.03591192357639944,
                        -0.17569747466834842,
                        0.12463086947134372,
                        0.21093188523629497,
                        -0.031239477415635764,
                        -0.1530850068135239,
                        -0.07642752423691207,
                        0.04218115501013592,
                        -0.05004164639719322,
                        -0.11897365530382267,
                        -0.11687003384191486,
                        0.11006482690996322,
                        -0.04986195852729336,
                        -0.10067196952492108,
                        0.2163140758729722,
                        -0.18517736380194627,
                        0.09797700919843383,
                        0.2227553601899604,
                        0.2229668885425214,
                        0.23319163461575865,
                        -0.053662377779695236,
                        0.1653201824613147,
                        0.1978140440690619,
                        -0.11770957136061547
                    ],
                    [
                        0.2336891431514737,
                        0.1154447004268957,
                        0.1627381223816487,
                        0.0143163426782148,
                        -0.23947444499191203,
                        0.0006871189199597061,
                        -0.2009359622012841,
                        -0.04610796559215902,
                        0.08584078073427542,
                        0.24506110376840473,
                        -0.2269617960329305,
                        0.024937516983119135,
                        -0.15812803628837238,
                        0.22911447790515926,
                        0.22217844868868147,
                        0.03332213766591885,
                        0.10982620607893878,
                        -0.10463056485496389,
                        0.16529379477681178,
                        0.029222398062857535,
                        0.2069609175037308,
                        0.05568330478226846,
                        -0.21321050516337783,
                        0.20830431465640048,
                        0.1448040797298436,
                        -0.08597480811277522,
                        0.12183943454390095,
                        0.16723960314780073,
                        0.11171803416238163,
                        0.052634301084683255,
                        0.1390475773902347,
                        0.00399910591475422,
                        0.10722521859093898,
                        0.1136208667985682,
                        0.03572657294642856,
                        -0.161500115096536,
                        0.12673326504574683,
                        0.045821938218105485,
                        0.08904548301531501,
                        -0.19618886845168712,
                        -0.06489938004801526,
                        -0.10829688866793605,
                        -0.21852827342039433,
                        0.035347229937575386,
                        -0.08860995955609546,
                        0.14961495088287385,
                        -0.22948448010719324,
                        0.22099492720595804,
                        -0.16839379511820507,
                        0.25027594634839867,
                        0.005841691177220054,
                        0.25073020704653437,
                        0.02328841244193225,
                        -0.11947203316712121,
                        0.03517634979224621,
                        -0.17677139653325968,
                        -0.21483584539094236,
                        0.026514867878689174,
                        -0.19088850789815492,
                        -0.19449168194948463,
                        -0.2485400730274962,
                        0.03883660085684715,
                        0.07190530023387254,
                        -0.07881688439886758
                    ],
                    [
                        -0.03872749551033142,
                        0.09287366128048952,
                        -0.1353643970938156,
                        -0.2452875246032709,
                        -0.24957638263527765,
                        0.00026802666372449657,
                        -0.026184239311701496,
                        -0.1681198479576309,
                        -0.010785419471282975,
                        0.2174033524670873,
                        0.06577018626133618,
                        0.04065228912686952,
                        -0.05556814674090421,
                        -0.06818913757948789,
                        0.11281511553894669,
                        0.10517880424829873,
                        -0.05772025157449093,
                        -0.2499748328971571,
                        0.11773795196383774,
                        -0.14247378914999706,
                        -0.09121543128183873,
                        0.03589388059361959,
                        -0.1887717854628059,
                        -0.11484455578061922,
                        -0.09871963008761278,
                        -0.16057601626397522,
                        0.24717612752369955,
                        0.17587687833064608,
                        0.011705538899420442,
                        0.011688354480015373,
                        0.20965071801063662,
                        -0.18720148532881814,
                        0.10736092813619658,
                        0.24091537469534197,
                        0.008979654226101752,
                        -0.0719156512159419,
                        -0.04934382012158317,
                        -0.14120058733792956,
                        -0.21611453136778286,
                        -0.23094322878352722,
                        -0.10720526823918847,
                        0.1620033519645248,
                        -0.23094489734450863,
                        -0.0982595627238036,
                        0.027059058661516866,
                        -0.2257465815222506,
                        0.1423651459317377,
                        0.020418949404891473,
                        0.2214343043381109,
                        -0.1508451303932239,
                        -0.0150303534035362,
                        -0.12503160000332814,
                        0.15951970028342916,
                        0.19742223061315867,
                        0.046204452907872284,
                        -0.13512917930655005,
                        -0.1230838067979094,
                        0.02479519315925771,
                        0.11351402577131842,
                        -0.20120467868638234,
                        0.017326627637624825,
                        0.09355908871200214,
                        -0.22359854612389327,
                        0.19081944940090134
                    ],
                    [
                        0.06811370233443653,
                        0.09096296773148144,
                        -0.08693474506907853,
                        -0.12418468638811692,
                        0.24603966268185862,
                        -0.23260169716430407,
                        0.08695996095346509,
                        -0.154602644383589,
                        -0.08772149950475558,
                        -0.01640444679824249,
                        -0.23125558429154483,
                        0.2516500653868904,
                        -0.20053308524575914,
                        -0.1781905059700381,
                        -0.129286358552059,
                        0.19468106454119177,
                        0.1495795327845436,
                        0.016871801843848178,
                        0.21813969874088318,
                        -0.2367040495557587,
                        -0.1506153614643317,
                        -0.1768324321223238,
                        0.1278545807612007,
                        0.17428397115891464,
                        -0.12112526390212885,
                        -0.14026512720079187,
                        -0.03477060798998041,
                        0.12654341915132056,
                        0.23095771087096068,
                        -0.05289358299538188,
                        0.12721263124047932,
                        -0.044042765862192856,
                        -0.10117683874624167,
                        -0.039919150717934365,
                        -0.13939921160407348,
                        -0.17515984877424362,
                        -0.05920828888995708,
                        0.10951357583986104,
                        -0.06104827765342985,
                        -0.22081904618151044,
                        -0.04828494928284649,
                        -0.11595333206541639,
                        0.13629197096307488,
                        0.20111456912582654,
                        -0.1591782271128346,
                        0.12511737734319356,
                        0.011983543159430954,
                        -0.10566210262423684,
                        0.05922837839164469,
                        0.10289216626872139,
                        0.0037806905212948716,
                        0.1290453466996208,
                        -0.23130932136964533,
                        -0.02137100812064699,
                        -0.04739638858691861,
                        -0.19657660093971446,
                        -0.2482126631515776,
                        0.1862494298566335,
                        0.10633289111824062,
                        0.2257731301413835,
                        -0.21105156824013177,
                        0.1144226458736734,
                        0.19706258254699682,
                        -0.1878210160043881
                    ],
                    [
                        -0.14099355516130302,
                        0.060775192959555524,
                        -0.05930504574000783,
                        0.18700577971796062,
                        -0.157069663664817,
                        -0.012694268716320595,
                        0.1315165021967466,
                        0.1544752643040116,
                        0.06521875103315489,
                        0.1313432808046962,
                        -0.1296149622263626,
                        0.09489963494423137,
                        -0.15457126662232917,
                        -0.0857380905750316,
                        0.16392429536244751,
                        -0.12468253996745493,
                        -0.10255409902017368,
                        0.025319541475706975,
                        0.029504307508787575,
                        -0.13011471921908152,
                        0.0016311278540390717,
                        0.10555245555641052,
                        -0.1784549705509716,
                        -0.15164537718070792,
                        0.08762652262718817,
                        0.027859771844746584,
                        0.11043641234586116,
                        0.09597342911995133,
                        -0.005820189674390075,
                        -0.1205805292106023,
                        -0.1712982854687198,
                        0.1142501932738782,
                        -0.24548494309580104,
                        0.1157813656324223,
                        -0.0004079266567872941,
                        -0.0178046516467337,
                        0.1180690600760591,
                        0.021954853763723636,
                        -0.15054645877205194,
                        -0.21981601538610276,
                        -0.17541720135919192,
                        0.13277772728252507,
                        0.003697991684144253,
                        -0.1767109969581338,
                        -0.047177791902369065,
                        -0.04643639968824814,
                        -0.15497347384605864,
                        -0.10988128067287675,
                        0.01961857774425435,
                        0.24918817828279016,
                        -0.08848560547499301,
                        -0.0033446668194873908,
                        -0.234339005296801,
                        -0.1038183103961817,
                        0.008726846337091865,
                        -0.1891825575835943,
                        -0.12590175609853643,
                        0.01941343492109565,
                        -0.11843873884461822,
                        -0.038299603933523885,
                        -0.05208250246761548,
                        0.22481435465222566,
                        0.17019817411491056,
                        0.11573042277335316
                    ],
                    [
                        -0.048980567372555905,
                        0.1210799052712353,
                        -0.2320058106917613,
                        -0.22137418656176477,
                        -0.045079729569468485,
                        -0.24397148985118328,
                        -0.17694410857787343,
                        0.18610913486497205,
                        0.1672393435085377,
                        -0.03962928721129591,
                        0.11233100328521978,
                        0.1867274292567096,
                        -0.07645727410228562,
                        -0.2010514446862961,
                        0.07250810480699055,
                        0.04806267019299493,
                        -0.23639368891881912,
                        0.06726160565846939,
                        -0.17240027755561632,
                        0.030317343739829028,
                        0.22929636864728703,
                        0.05952448872179472,
                        -0.10877897371568876,
                        0.16124374023592503,
                        -0.07205008754478923,
                        -0.22644526327834089,
                        0.15757331097217492,
                        -0.019253856622688775,
                        0.16015385949113975,
                        0.09778228881688517,
                        -0.0865779792897304,
                        -0.06961601523795266,
                        0.015277537591553148,
                        0.20527266499300073,
                        -0.24018640282086434,
                        -0.22428720531438678,
                        0.06070709823518605,
                        -0.23706843606875042,
                        -0.08362484129362852,
                        -0.14617834809546482,
                        -0.12417453941253623,
                        -0.14837319519427933,
                        -0.10092789979524816,
                        0.05775275276353331,
                        -0.06818711400304264,
                        0.13303853341689947,
                        0.25094421537925526,
                        -0.1131185275247712,
                        0.23510760236363287,
                        -0.13882869150699018,
                        -0.2046104462380305,
                        0.12609004200153862,
                        0.0012746320510177434,
                        0.04330442609873508,
                        0.09999759781203471,
                        -0.1910537673167822,
                        -0.05809957307716057,
                        0.05704061673850036,
                        -0.14994652067178504,
                        -0.026655708249786247,
                        -0.23712957511775598,
                        0.18177067082696174,
                        -0.1222092466666673,
                        0.10412989439833625
                    ],
                    [
                        0.08105587889390992,
                        0.18228365440375488,
                        -0.16528500311984912,
                        -0.060152645956093875,
                        0.07514807853839489,
                        0.16100158126762804,
                        -0.0639577989931562,
                        0.14347155013346796,
                        -0.22305234149555156,
                        -0.16998209097887274,
                        -0.028269837378566393,
                        0.23227875660671599,
                        -0.16515519241216395,
                        -0.14677982023617964,
                        0.04210155153006345,
                        -0.18041285184293654,
                        -0.1159132868917701,
                        -0.20172589546805259,
                        0.031012733947169135,
                        -0.20982225136617297,
                        -0.20902800119155668,
                        -0.11754896514057231,
                        -0.11774265347301976,
                        -0.22069444759000592,
                        -0.11954651806233021,
                        -0.15505506516947662,
                        -0.18811962821455475,
                        -0.039865221710217696,
                        0.046027909962603364,
                        -0.12481961173590833,
                        0.0673449866811699,
                        0.03382417981311764,
                        -0.17225724062327613,
                        -0.15246335468147193,
                        0.22139412947196918,
                        -0.012958061308677937,
                        -0.154415911620087,
                        0.05487216306683468,
                        -0.10070318045691229,
                        0.11467983014676231,
                        0.24221309844588124,
                        -0.10717572872865219,
                        -0.15828638946224688,
                        0.22006737056373565,
                        0.04938879504223709,
                        -0.05150295217713827,
                        0.07195408243712131,
                        -0.11106417805077037,
                        0.17421712612796292,
                        -0.18247627610904388,
                        0.07793153387307522,
                        0.038768735687733924,
                        0.013333869504405849,
                        -0.017201156024751196,
                        0.08073967709426683,
                        0.236130299227107,
                        0.1757270447498338,
                        0.19812975287317752,
                        -0.05661466493388456,
                        0.057606260241718055,
                        0.21239009201851622,
                        -0.09268330742243089,
                        0.1704204840335598,
                        -0.21498711092365755
                    ],
                    [
                        0.1297921150047192,
                        0.2117129132254375,
                        0.21319799089060176,
                        -0.16426659789660883,
                        -0.007841742971538307,
                        -0.11564581540782401,
                        -0.16881222465677523,
                        -0.19740382577206478,
                        -0.1447734319590982,
                        0.03577457048830801,
                        -0.19886892454135807,
                        -0.06752774857209157,
                        0.23813270355892063,
                        0.20961548436700056,
                        -0.25101988429858363,
                        0.1707515274008965,
                        0.08925401351195222,
                        -0.2229248978282297,
                        -0.09826313167231612,
                        -0.01522119742970593,
                        -0.01642727571573685,
                        -0.07468533823063467,
                        0.00754655512977942,
                        -0.18571158018701786,
                        -0.20191979076925004,
                        0.203342161736552,
                        0.056118473488194764,
                        -0.17015671868181032,
                        0.01019859978618054,
                        0.08081458700302507,
                        -0.06203696432119549,
                        -0.09178850153444201,
                        0.07433055096482505,
                        0.19202182117519562,
                        -0.0893781537921974,
                        0.19743771029422336,
                        0.02015322915627421,
                        -0.19954478971157566,
                        0.22550474011681476,
                        0.03880990355599839,
                        0.04221253170288164,
                        -0.11261255260390335,
                        0.0036371453286527244,
                        -0.059688380712379835,
                        0.11692639570770358,
                        -0.2465709701979298,
                        -0.11754567388582898,
                        -0.023441273241696148,
                        0.08570479554764632,
                        -0.1638350361765901,
                        -0.01847208268264655,
                        -0.023425049830103323,
                        0.053216672642265817,
                        0.20127477118933274,
                        0.04273421683123746,
                        0.049304209459305415,
                        -0.20349052104413606,
                        0.028922765572430176,
                        -0.18807898307541504,
                        -0.07296420273571513,
                        -0.15050213730727507,
                        -0.14225811871322905,
                        -0.12318019687745907,
                        0.013634651671513731
                    ],
                    [
                        -0.12102768731652258,
                        0.07651535440370905,
                        -0.06626043242646182,
                        -0.036869032149172226,
                        0.057796664407885945,
                        0.12445647026624068,
                        0.20404147499978947,
                        0.18963586566462787,
                        -0.08024205367624221,
                        0.19080988933315834,
                        0.08005199677020947,
                        -0.11930980288136048,
                        0.2236221472149984,
                        0.04276069734331006,
                        0.12193639752836505,
                        -0.10059195217357028,
                        -0.06933174888564542,
                        0.0031445031496134535,
                        0.1601523552761041,
                        -0.09375521828769492,
                        -0.18600464182833568,
                        -0.028218092077917867,
                        -0.06611827907206758,
                        0.015695271659661725,
                        -0.012219916848864365,
                        0.19439723757642963,
                        0.1468131659652977,
                        0.0016463458184393098,
                        0.13994116893286768,
                        0.12346753481953565,
                        0.11936949872327762,
                        -0.006614103670335381,
                        0.024818836524118704,
                        -0.24194091033461113,
                        0.004155423034098604,
                        -0.02673999013810391,
                        -0.22583783841213215,
                        -0.15424887045300195,
                        -0.1705728686739967,
                        -0.16876829387351616,
                        0.16455966214877943,
                        0.047634247751735415,
                        0.04038216367491765,
                        0.14482422534234624,
                        -0.05505812400778978,
                        0.03515791956409586,
                        0.015853226043200996,
                        -0.22913768654705605,
                        -0.09198585280453558,
                        -0.24940830761163305,
                        0.09943228795728831,
                        -0.1949390545419572,
                        -0.22405398573017182,
                        0.10060199183508972,
                        0.24378366415359282,
                        -0.11579912349602792,
                        0.1981245621017068,
                        0.16610301192801907,
                        -0.2489505705741366,
                        -0.0922685666598122,
                        -0.20534049972230833,
                        -0.055503956347064454,
                        -0.001759723051359352,
                        -0.2326089047575324
                    ],
                    [
                        0.03522529393949142,
                        -0.020645476454702383,
                        0.15633525043848695,
                        0.0028733318387094142,
                        -0.05893833887347849,
                        -0.15155764265779342,
                        0.15095586758599794,
                        -0.1736408087417542,
                        0.11787543617401752,
                        -0.06214518303861141,
                        -0.18315638311892113,
                        0.1824383988410334,
                        0.046842577543400654,
                        -0.15215895345947816,
                        -0.09060066962355687,
                        -0.2154837350398659,
                        0.2332268470092796,
                        -0.1479119964234668,
                        -0.17767745111941677,
                        -0.017141471723856744,
                        0.047084373079054,
                        -0.01347024906004507,
                        0.13874082308351093,
                        0.03768051655495985,
                        -0.05373102731641985,
                        -0.01572791185181424,
                        -0.23374423713170606,
                        -0.06036364092924479,
                        -0.030211696106693442,
                        0.055472461914687465,
                        0.11410101400413736,
                        -0.23215576952272132,
                        0.09958198061222973,
                        0.09264582071400529,
                        0.18969039892690898,
                        -0.1861513478367208,
                        0.0600598988803433,
                        -0.2486053105718371,
                        0.09680496144883088,
                        -0.06321907456646886,
                        -0.09131289593448547,
                        -0.033417714250136205,
                        -0.07115985042053702,
                        0.21471738337384422,
                        0.07752800990104725,
                        -0.14418533278095802,
                        -0.004314096970750775,
                        0.2274474275387648,
                        0.12930761960995368,
                        0.1420167920882966,
                        0.07905094381394479,
                        0.134798275868814,
                        -0.22523691922217928,
                        -0.10876021670993707,
                        -0.049207465111567594,
                        -0.20683070014725888,
                        0.20480777810225664,
                        -0.15926935673994297,
                        0.15845941960893195,
                        -0.1993810877868933,
                        0.08838092153052035,
                        0.08581303363438264,
                        0.22978333593579187,
                        -0.24680744870127821
                    ],
                    [
                        -0.13666676082927237,
                        0.21288346748072012,
                        0.17430215522248216,
                        0.24078669394100788,
                        -0.17383271926478153,
                        0.17502339132255318,
                        -0.10468999680867547,
                        -0.01671292009641695,
                        0.22139371157522109,
                        -0.12207413225505481,
                        0.21307610699701995,
                        -0.023784920457901343,
                        -0.15291407953325475,
                        -0.20246218743599242,
                        0.11826885140819232,
                        -0.01720095682966649,
                        -0.06625226022938627,
                        0.22166190375753886,
                        0.15253739579867542,
                        0.15091491744819657,
                        0.20396351963585468,
                        0.21473479643505416,
                        -0.24900388357583797,
                        -0.20412657815019697,
                        -0.14710722754433775,
                        0.06513720822002789,
                        0.0888286035766171,
                        0.07013284536235231,
                        0.17794705401192767,
                        0.009324596507579108,
                        0.03120194877778465,
                        0.10779406824911769,
                        -0.05688898875154591,
                        -0.09619876455386442,
                        0.13151146699569993,
                        -0.134212701172511,
                        -0.13766926284530706,
                        0.2143574186588838,
                        -0.12642105418365507,
                        0.12856776821603005,
                        -0.03670537695571305,
                        -0.15548363635314613,
                        -0.06333114788010052,
                        -0.05975434368854479,
                        0.10754500731156402,
                        -0.1830897690925508,
                        -0.13986232116874528,
                        0.09730486116812465,
                        0.1388094305686634,
                        -0.1875871676118353,
                        0.08850888693937325,
                        0.07731469070096819,
                        0.010527866864055824,
                        0.2128580793049773,
                        -0.24844822463871796,
                        0.0024626405582237054,
                        -0.1614532789014835,
                        0.16646437632533145,
                        0.1134848424829274,
                        -0.1938659793478212,
                        -0.007621980681753987,
                        0.10591792684295664,
                        0.22244719405704083,
                        0.1535307518532359
                    ],
                    [
                        0.019138893190174644,
                        -0.17264609658119887,
                        0.04840572904806956,
                        -0.12898705534970503,
                        0.08314177170503217,
                        0.0024299459644733234,
                        -0.1292599614306983,
                        0.15535339774859408,
                        0.1212133284025615,
                        0.1210350161639761,
                        -0.14498638551187615,
                        0.01784932840852549,
                        -0.23579292132940616,
                        -0.11262497728199355,
                        -0.02063553341106078,
                        -0.06407345938478526,
                        -0.11568147020656741,
                        -0.24756605336636928,
                        -0.17876062713763086,
                        -0.04736169631518075,
                        0.25033290615166004,
                        -0.18560630792796382,
                        0.044270835907785466,
                        -0.11761667091256423,
                        0.22740475625909357,
                        0.0700849719828045,
                        -0.16855569310613733,
                        -0.1251901124500512,
                        0.09883774816922103,
                        0.12222108938483223,
                        0.015617477389244738,
                        -0.06742168870914372,
                        -0.14261354198504397,
                        -0.17550051876720002,
                        0.23554677322411915,
                        0.23975928930485568,
                        0.2410468161712528,
                        0.026244538040872234,
                        0.039391330062665375,
                        -0.221930502940084,
                        0.015754585634626506,
                        0.008205440570525246,
                        0.08469820994329857,
                        0.21345566015993528,
                        0.23946609046094125,
                        0.09198531313081965,
                        0.028749126950620874,
                        -0.20653452246928225,
                        -0.03824029059324546,
                        -0.19278636335516383,
                        -0.14857994856632317,
                        0.18157763133569588,
                        0.07252066923645012,
                        -0.14955922647174505,
                        0.16487870230038243,
                        -0.21278207080713496,
                        -0.037087839748988605,
                        -0.07135785084755122,
                        -0.2022118278683539,
                        0.09000441949314192,
                        -0.10457109461117087,
                        -0.07845918306526178,
                        0.2074776723977998,
                        0.22860683580473812
                    ],
                    [
                        -0.18190497585068163,
                        -0.10627460407324615,
                        -0.20461926335546843,
                        -0.24644792111771074,
                        0.19248177325480942,
                        -0.004199773450281219,
                        0.023000020666850196,
                        -0.08164492428966638,
                        0.02907401406089788,
                        -0.046305560901470255,
                        -0.07653001387481859,
                        -0.059088628165511164,
                        -0.043151680909584794,
                        0.11121606932277267,
                        0.10700282923484794,
                        0.03831129800749039,
                        0.06783783444134711,
                        -0.06783829824867554,
                        0.03989339282448745,
                        -0.0796997596507516,
                        0.09204493177364276,
                        0.2045949843680538,
                        0.23730098616591128,
                        -0.0785034916282348,
                        0.006790467474052819,
                        0.14639943120950405,
                        0.1443606197252305,
                        0.20743793766993968,
                        -0.04517989998872704,
                        0.04390136745353207,
                        -0.11009267044036866,
                        0.12373765490009259,
                        0.13786955284006386,
                        -0.19406494440866207,
                        0.1916665022190323,
                        0.18965994879839837,
                        0.22448252433014143,
                        0.22757154319110434,
                        -0.21206552239154972,
                        -0.06885430758446517,
                        -0.1267821738926821,
                        -0.178148902813401,
                        0.04291817672947085,
                        -0.028581200595247408,
                        0.1850450822185326,
                        0.21791931402588333,
                        -0.1340363477853885,
                        0.1278048118496511,
                        0.08492549433876828,
                        -0.2448131717393084,
                        0.2393702070293986,
                        0.19562085203303442,
                        -0.08487036289699518,
                        -0.24301805628993156,
                        -0.16171387014918692,
                        0.07376789105542514,
                        -0.2118381224594339,
                        0.13353246945395042,
                        0.02432358635231513,
                        -0.0029896528969889924,
                        -0.042805207642379384,
                        -0.24945295996510727,
                        0.24381467805964563,
                        0.17450644140921873
                    ],
                    [
                        0.22657368306076597,
                        -0.23075431899435603,
                        0.13261673267841212,
                        0.12280116467781349,
                        0.1554921117090815,
                        0.13068686682197633,
                        0.041110706402226915,
                        0.21813871352504488,
                        0.014443111172464107,
                        -0.21762430196826954,
                        -0.05300540870927359,
                        -0.007517350038508147,
                        -0.12047603115820316,
                        -0.17484822640574085,
                        -0.04854131038887116,
                        0.11741797283587513,
                        -0.21020683302200482,
                        0.008519157586345194,
                        0.24598363826438252,
                        -0.028889874114615605,
                        -0.12740351307959724,
                        -0.23219882065285816,
                        -0.15316945833589668,
                        0.24907628147685534,
                        0.20906831951629812,
                        0.19463656542325858,
                        0.15613464216663514,
                        -0.04837347743821355,
                        -0.016742746845068823,
                        0.08450517641347105,
                        0.19966345574630895,
                        -0.06270933350651559,
                        0.006552873486182609,
                        -0.06088185753853462,
                        0.22155498522795142,
                        0.11850904627467407,
                        -0.10630915310403341,
                        -0.1293977240215446,
                        0.24224024185651127,
                        0.11141832089387316,
                        -0.24649472257682475,
                        0.21472303560167028,
                        0.0007255158003969253,
                        -0.009129411167826618,
                        0.09588360216364356,
                        -0.2191581608831897,
                        -0.03381672678688788,
                        0.0244655597122323,
                        0.07636321572288046,
                        -0.2215851730112849,
                        -0.16583573711206845,
                        0.10494556990275489,
                        0.06952832950035903,
                        0.11756017978762645,
                        -0.06770272447498263,
                        -0.0265850228242622,
                        0.17493866058341173,
                        0.24176448676212764,
                        -0.1904580423184549,
                        0.16512946592583533,
                        -0.2520614183341435,
                        -0.20973976839963088,
                        0.10027823113283024,
                        -0.17627295583484615
                    ],
                    [
                        -0.20374252192092268,
                        -0.14608201451472974,
                        -0.0787498816941819,
                        0.1729774218448798,
                        0.15220950238803632,
                        0.21967882357121926,
                        0.22584035543810033,
                        0.19597539754268517,
                        0.17300575517069522,
                        0.12146789605181851,
                        0.2248896893017981,
                        -0.25080083427942,
                        -0.2169153575369358,
                        0.0008244032759819331,
                        -0.1976492838688928,
                        0.20785664889936334,
                        0.18667608561038057,
                        -0.00352162736264669,
                        -0.09036336497451211,
                        -0.07907964311549806,
                        -0.24708278094950684,
                        -0.13395458826434756,
                        -0.1766397728700144,
                        0.05812609706013294,
                        0.0490643368645271,
                        0.009210847751000228,
                        -0.23954442346118912,
                        0.053866651645787855,
                        -0.16935938095958836,
                        -0.16080416680581744,
                        -0.12494665602302066,
                        0.24600521380070134,
                        -0.20466349413695878,
                        -0.11828893268928445,
                        0.03313077296120637,
                        0.24638908135558918,
                        -0.038903142697314735,
                        0.10285523511098832,
                        0.07303632531525206,
                        0.09773407394814243,
                        -0.2219733016762777,
                        -0.06509288210099773,
                        0.13440835724187544,
                        0.012341918901591364,
                        0.18338480880344382,
                        0.0676491142249851,
                        0.17148756177079527,
                        0.13523178815922132,
                        -0.08088819046175222,
                        0.17682305452067687,
                        0.09511710096662523,
                        0.16402740456207737,
                        0.1903995314447397,
                        0.2357981866365204,
                        -0.03467506202733625,
                        -0.1635888686623698,
                        -0.04147672926530768,
                        0.012786916687340666,
                        -0.019396797406612876,
                        0.05847856363204784,
                        0.14305625240411884,
                        -0.09453040065746687,
                        -0.04787932958139629,
                        -0.10473644120368472
                    ],
                    [
                        -0.14476849182359433,
                        0.1510043033485608,
                        -0.17782701168192092,
                        0.23825528760737896,
                        -0.06199986458356033,
                        0.12191281558324435,
                        -0.16385166427252068,
                        0.16804970716538936,
                        0.1988472410392984,
                        0.10830129003104055,
                        -0.1029336112346454,
                        -0.226912763204925,
                        -0.009014692622342307,
                        -0.11352332420312991,
                        -0.13542630503711633,
                        0.011888340589818858,
                        -0.13536684815142785,
                        -0.23924431825883632,
                        -0.08671738488823075,
                        0.06896384078418627,
                        -0.07935696528847572,
                        0.05065400574695633,
                        -0.2507480267504068,
                        0.23884303566449455,
                        0.11764895204082848,
                        -0.24935028722240862,
                        0.07900059526336262,
                        -0.14575286328226184,
                        -0.1925592222653481,
                        0.06984069047129288,
                        -0.1986509972029242,
                        -0.2473760967583165,
                        0.04334934631238091,
                        0.17587493478998228,
                        0.019713429278183203,
                        0.21001944677617362,
                        0.08218203183029726,
                        0.1496015387472301,
                        -0.019209203758599247,
                        -0.161528936430615,
                        -0.13233043950164464,
                        -0.22926125160830646,
                        -0.02083232461242948,
                        0.009885457682969445,
                        0.19263295679129622,
                        -0.10194192798100693,
                        0.21810160093489045,
                        0.1554033945525053,
                        0.021592062538753287,
                        -0.24794089171718037,
                        -0.007140973735056205,
                        -0.027588220486634285,
                        -0.1475999036230462,
                        -0.22444269336596534,
                        0.1135168395244257,
                        -0.08540097782199602,
                        0.06661011947679163,
                        0.05038810662072518,
                        -0.09714075108149944,
                        -0.13876284606779338,
                        0.0947305927618089,
                        0.0981347186828887,
                        0.23191226528885683,
                        0.02087228518858747
                    ],
                    [
                        -0.15721831678521214,
                        -0.139188566671739,
                        0.06011180175992137,
                        -0.15396178707385744,
                        0.0034324851034320814,
                        0.10699685062893399,
                        -0.08269897715898414,
                        -0.18168268346408178,
                        -0.03300813448771439,
                        0.021011694976873663,
                        -0.24506215049133073,
                        -0.05338089182561645,
                        -0.05659948939843726,
                        -0.051063084417783594,
                        0.22632561482630853,
                        -0.02858925216740041,
                        0.110096565469892,
                        -0.15668582184172122,
                        -0.1789516026793846,
                        -0.07131893744232834,
                        -0.2413892010400177,
                        0.15300431259753067,
                        0.15041121935616508,
                        0.014036764758694142,
                        0.030989471557224035,
                        -0.2492141178223422,
                        -0.07406585853382211,
                        0.2064436806022713,
                        0.14264205167760086,
                        0.06301358126422824,
                        -0.10246596538982744,
                        -0.16387096405602075,
                        -0.012943997560694531,
                        0.08014724145697405,
                        -0.03593254335054122,
                        0.23772361885807997,
                        0.03493001417424896,
                        0.22828134095651392,
                        -0.18757475912154215,
                        -0.05330239410416546,
                        -0.08904717634387174,
                        0.24202932708870778,
                        -0.1346038732288763,
                        -0.045215983946814586,
                        0.1412670064461367,
                        0.1683047751762009,
                        0.011642175539380129,
                        0.009281236778624025,
                        -0.13173878735361616,
                        0.018523222457792532,
                        -0.005814861452124703,
                        -0.2182110975313093,
                        0.11853208098497114,
                        -0.21720207348231646,
                        -0.10160580640533531,
                        -0.0956562966861475,
                        -0.12260209063158639,
                        -0.20789301723714507,
                        -0.04691922120715508,
                        0.08060704225470228,
                        0.05178953784366097,
                        0.24071390075782528,
                        0.12291899087885721,
                        0.19360725649112726
                    ],
                    [
                        0.2397386570800441,
                        -0.05226442737462092,
                        0.24341796723840492,
                        -0.22526048105987903,
                        -0.20209675950355377,
                        -0.12512905900303176,
                        -0.15780793823250977,
                        0.17601211859674598,
                        0.10425650616866594,
                        0.13604167739786693,
                        -0.21131415735576128,
                        0.23212724198622958,
                        -0.15063178772700175,
                        0.1732484554109056,
                        0.19031734165434505,
                        -0.07907621756171959,
                        -0.2188209350487007,
                        0.24315169629607503,
                        -0.026303577785902588,
                        0.09158651440325766,
                        -0.033858231374691655,
                        -0.1292286671793691,
                        -0.0005381697019714582,
                        0.23333488039122224,
                        -0.22920638717391398,
                        -0.03578767289341195,
                        -0.1784225700961916,
                        0.22261576225554225,
                        -0.1128941745383629,
                        -0.13692299393724433,
                        -0.22268686611181596,
                        -0.17838568902322652,
                        -0.059434207340343326,
                        0.1336377934029055,
                        -0.20546137621225657,
                        -0.24955244709003985,
                        -0.18052728512583044,
                        0.13212033220239905,
                        0.16516772865376966,
                        -0.0594219558510696,
                        0.1698706233987643,
                        0.17922142971351318,
                        -0.1905406097824791,
                        -0.07268482470682164,
                        -0.15818130640337397,
                        -0.19761204707460756,
                        -0.05172676380518926,
                        0.227903016398168,
                        0.08021761281516016,
                        -0.13038068574371148,
                        0.20288200276830476,
                        -0.16384072610214226,
                        -0.041823531527629604,
                        0.20674526452583702,
                        -0.07048367894230873,
                        0.03672054279774678,
                        0.17506995020023147,
                        0.14630913465100637,
                        -0.10735678812933833,
                        0.2272057470069217,
                        -0.11715262332894033,
                        -0.0018643124531832478,
                        0.040344867742009016,
                        0.1531304611616004
                    ],
                    [
                        0.050143662011238044,
                        0.09736531592552627,
                        -0.11300799984616539,
                        0.11172270204690293,
                        -0.014566840141085835,
                        -0.14694602742601615,
                        -0.24225420024930264,
                        -0.125075042143221,
                        0.1399223107361296,
                        -0.03605206521219065,
                        0.0772257059283658,
                        -0.06482494078751627,
                        -0.0003692502109507445,
                        -0.0527037949905578,
                        0.209036392036673,
                        0.015216152671523764,
                        0.17614390692530796,
                        0.1797839028981797,
                        0.09762591109277646,
                        -0.08056189655234941,
                        -0.0401046025098554,
                        -0.1802457720839299,
                        0.07136476919340756,
                        0.17475896193080281,
                        0.18011230558055047,
                        -0.06929997045201794,
                        0.07286742871021867,
                        -0.009751008648320791,
                        0.06956885174077476,
                        -0.10791911884606181,
                        -0.19315307132179765,
                        -0.15113106807031979,
                        -0.24084072464301326,
                        -0.1768868499159723,
                        0.1001305516111004,
                        -0.24523605976633028,
                        0.05248412361124116,
                        0.04989730725976477,
                        -0.12408241128140166,
                        -0.19943360039851796,
                        0.14223318261731832,
                        0.04032337853543172,
                        0.019981672845255205,
                        -0.24978071010133004,
                        -0.06230622047959267,
                        0.1743014329087354,
                        0.18860389641221942,
                        0.2080216855948538,
                        -0.1437930739672941,
                        -0.24870410162579615,
                        -0.018499408308707915,
                        0.24472715308872345,
                        0.0842448984025525,
                        0.22169766371500904,
                        0.1486917237464308,
                        0.1769751183087383,
                        0.023095216127851315,
                        0.10991072226000403,
                        0.1634703268228343,
                        0.19324944619488205,
                        0.19554891001870267,
                        0.22935906192340294,
                        0.19024912462578264,
                        -0.0793028420102096
                    ],
                    [
                        -0.09837898246419186,
                        -0.11719923741495367,
                        0.22038213972759163,
                        -0.17818314880143515,
                        -0.15282901901691476,
                        -0.15686772987202613,
                        0.04734192838961354,
                        0.15246725898637437,
                        0.2412685271517233,
                        -0.11941056919401677,
                        0.016920196642020324,
                        -0.10952331419511246,
                        0.14579423152406468,
                        -0.08478863650097371,
                        0.21379684282151795,
                        0.14899498273088607,
                        -0.15677087632647974,
                        -0.0945771574851027,
                        -0.085208243561877,
                        -0.1228284583460513,
                        0.001586489246000744,
                        -0.20405077651667478,
                        0.1978902809502579,
                        -0.11778211286383583,
                        0.030242725061901565,
                        -0.18832920832229844,
                        -0.1548549508848565,
                        -0.24964655176467582,
                        -0.17779190175399906,
                        -0.15197532533141803,
                        0.19930704318128006,
                        0.08825043607402389,
                        -0.20326760238720443,
                        0.21439207755815803,
                        0.06871107838229296,
                        0.18800406420271815,
                        0.08920074985161797,
                        -0.24059478215598512,
                        0.21743610868061036,
                        -0.07043717658262402,
                        -0.16861737448798358,
                        -0.015214737821953789,
                        -0.08860205133374172,
                        0.25138306172275016,
                        -0.2101073756188137,
                        0.2325242326240602,
                        0.23016846787551265,
                        0.2013531472811862,
                        0.2010716900982974,
                        -0.007676404929784886,
                        -0.017107925967901588,
                        0.04866503035724318,
                        0.17572409204035566,
                        -0.18733316521169682,
                        0.14492422585913056,
                        -0.017677261619458123,
                        -0.23256487198310932,
                        0.09335180458675374,
                        -0.032635989903983975,
                        0.07049585552402099,
                        0.12821062152756751,
                        -0.016550548986692365,
                        -0.10534661683253127,
                        -0.037701445046519594
                    ],
                    [
                        -0.12308540340433474,
                        0.08138859105854113,
                        0.09725618868583219,
                        -0.05882735071364556,
                        -0.20561734276494698,
                        -0.012964221203433324,
                        -0.1367103368953125,
                        -0.22408692303817085,
                        0.04069930654699955,
                        0.11838168585662734,
                        0.17004921787090999,
                        0.1917156358270412,
                        0.17322634336230813,
                        0.03593226879488015,
                        0.055546329631913305,
                        0.2170083899720081,
                        -0.1673062731037535,
                        -0.07829648045588403,
                        -0.0701268535357597,
                        -0.08133028963027003,
                        0.1533522250682628,
                        0.24911382494398315,
                        0.009750267526414225,
                        -0.23642544834583787,
                        0.21037121751094506,
                        0.15178989426267447,
                        -0.05639511944481959,
                        0.03015848922149078,
                        0.03141777284857006,
                        0.21941499794491198,
                        0.09189267884895314,
                        -0.25211539025469176,
                        -0.07547028076821491,
                        -0.24789989773495577,
                        -0.08649607802124651,
                        -0.037813381914247685,
                        0.20703338068260874,
                        0.18979639067174903,
                        -0.07256939283022734,
                        0.18556540539471789,
                        0.10138985587811139,
                        -0.23651781704759514,
                        -0.21123266909414254,
                        0.03681243838323894,
                        0.004352269701512479,
                        -0.21775740474505634,
                        0.19437983334504527,
                        -0.06397301967933702,
                        -0.13140262657311463,
                        -0.053501327126755344,
                        0.09308959380097159,
                        0.1510969919931714,
                        -0.1154663482999295,
                        0.059056330672999036,
                        0.01321075375105435,
                        0.11088463123788378,
                        -0.17075958033088603,
                        0.08668174015152741,
                        -0.0836565489621035,
                        0.020335790385607566,
                        0.17881951786759098,
                        0.0783340370631625,
                        -0.08971133535761586,
                        0.2297357507193541
                    ],
                    [
                        -0.08076700715753068,
                        -0.06789092198700833,
                        -0.1235837838662773,
                        -0.048957853881403335,
                        -0.02833993438303231,
                        0.1565677262107274,
                        -0.03501010597571799,
                        0.18463337582592615,
                        -0.2467669560651961,
                        0.1940542830250448,
                        -0.045981680118211465,
                        -0.042938749735826925,
                        0.1454815870254932,
                        -0.10392292222417637,
                        -0.10777716600107162,
                        0.13100179378732596,
                        -0.020953214936364317,
                        -0.17968214428327672,
                        0.0947136212636277,
                        -0.21848206002356135,
                        -0.24810965454148418,
                        -0.17509811500916947,
                        0.0012681535410914435,
                        -0.24191094093669357,
                        0.19992647819280207,
                        0.05692942003126156,
                        -0.23030273424399153,
                        0.1591353931043923,
                        0.11421207012536039,
                        0.06474501175713016,
                        0.10480262503840998,
                        0.2182132045910979,
                        -0.22246928542285113,
                        0.18936794484963176,
                        0.07503335952171908,
                        -0.10412316929052978,
                        0.011863116515967664,
                        0.17012550676591376,
                        0.058679326256651065,
                        -0.005391278434979524,
                        -0.17881072256742536,
                        -0.24491766515145147,
                        -0.020833433035243987,
                        0.031010452414525047,
                        0.03554965240130298,
                        0.24363496333862344,
                        -0.1591932615538194,
                        0.20612767151553735,
                        0.2101334633497669,
                        -0.014050221466682028,
                        0.09336873455934092,
                        -0.23134044190706707,
                        0.2453552184168935,
                        -0.12588547428664495,
                        0.2435067211312973,
                        -0.2090042216266786,
                        0.11676299389851458,
                        0.005485748942145041,
                        -0.09294364265247818,
                        0.22099503879774735,
                        -0.2441896217853342,
                        -0.2360496316347555,
                        -0.23967985029445582,
                        0.06989590175999616
                    ],
                    [
                        -0.19329582772371187,
                        0.008801841755729622,
                        -0.17813014024909318,
                        0.12207416047448633,
                        0.0851939602714894,
                        -0.03610357538647327,
                        0.011896380080771818,
                        0.14354347423096647,
                        0.2065282320702082,
                        -0.0054772263785719255,
                        -0.1035418218088574,
                        0.011872534912552746,
                        -0.011702143353897548,
                        0.013425990048919922,
                        0.10101497270311688,
                        -0.02977039647807206,
                        -0.05710505670988403,
                        0.047589275675454346,
                        -0.0747603260620486,
                        -0.18209731388192574,
                        -0.00400256987980338,
                        -0.0872389458170347,
                        -0.10815423416664727,
                        0.20773636780246119,
                        0.051449799322294154,
                        0.13941459072985196,
                        -0.21306585867704053,
                        0.10470913772707119,
                        0.1258861421564595,
                        0.1227656936474178,
                        0.1670541152551685,
                        0.1335060460618494,
                        -0.2311203086309077,
                        0.20469189231590346,
                        0.08627375121969344,
                        -0.10230544608601913,
                        -0.02543008349062223,
                        0.08851252979924401,
                        -0.2454725335669855,
                        0.21837715486910247,
                        0.13530299308668137,
                        0.23986475717375466,
                        0.051615403199156806,
                        -0.05922913429723417,
                        0.05699075356504618,
                        0.10459125992894963,
                        0.19407259283149425,
                        0.10605068790205335,
                        0.09295206347551521,
                        0.08057891234881148,
                        -0.04011468146949551,
                        0.16995341815133724,
                        -0.01424666128657237,
                        -0.005358387227490047,
                        -0.0888864227711898,
                        -0.0840713342312647,
                        -0.20885644563368963,
                        0.2094985257149895,
                        0.06524524469505477,
                        0.09049546303408024,
                        -0.094677742894064,
                        0.1885976372813366,
                        0.054806337183688325,
                        -0.2419852407757244
                    ]
                ],
                "bias": [
                    0.0,
                    0.0,
                    0.0,
                    0.0,
                    0.0,
                    0.0,
                    0.0,
                    0.0,
                    0.0,
                    0.0,
                    0.0,
                    0.0,
                    0.0,
                    0.0,
                    0.0,
                    0.0,
                    0.0,
                    0.0,
                    0.0,
                    0.0,
                    0.0,
                    0.0,
                    0.0,
                    0.0,
                    0.0,
                    0.0,
                    0.0,
                    0.0,
                    0.0,
                    0.0,
                    0.0,
                    0.0,
                    0.0,
                    0.0,
                    0.0,
                    0.0,
                    0.0,
                    0.0,
                    0.0,
                    0.0,
                    0.0,
                    0.0,
                    0.0,
                    0.0,
                    0.0,
                    0.0,
                    0.0,
                    0.0,
                    0.0,
                    0.0,
                    0.0,
                    0.0,
                    0.0,
                    0.0,
                    0.0,
                    0.0,
                    0.0,
                    0.0,
                    0.0,
                    0.0,
                    0.0,
                    0.0,
                    0.0,
                    0.0
                ]
            },
            {
                "type": "FullyConnected",
                "name": "Default FCLayer name",
                "units": 18,
                "activation": "Linear",
                "kernel": [
                    [
                        -0.08148302602582203,
                        0.07428866219882507,
                        -0.15572013789003836,
                        0.05297131431450408,
                        0.03443352733308647,
                        -0.1564152240974722,
                        0.2704792065889224,
                        -0.13942154091925768,
                        0.18529476521951943,
                        -0.2014141285543665,
                        0.26507140500113774,
                        0.2274633563970172,
                        0.1813432617564461,
                        0.23835476562467212,
                        0.04746549117940041,
                        0.15530727045423431,
                        -0.1347933910151407,
                        0.10133972300108851
                    ],
                    [
                        0.036132913157428614,
                        -0.037222447515691565,
                        -0.1845796362199587,
                        -0.13563831773735366,
                        0.03465038027052725,
                        0.243749736752703,
                        0.0066193772770002934,
                        -0.09493131846463385,
                        0.016101629929209882,
                        0.017112872569635562,
                        -0.2088272418443838,
                        0.09224747179566167,
                        -0.21338438840788607,
                        -0.2463141524522162,
                        0.218363169125878,
                        0.27022538405954905,
                        0.13951683629169437,
                        0.24824023557608704
                    ],
                    [
                        -0.047972883699548,
                        0.04814684485971871,
                        0.09954185321439502,
                        0.022991872485039366,
                        -0.17097035128566446,
                        -0.22044367849470622,
                        0.1014099928988762,
                        0.23686798918991908,
                        0.17651454494043006,
                        0.07417239421689803,
                        -0.08641156768303113,
                        0.2323659911031512,
                        -0.010161698543437292,
                        -0.09463571167446666,
                        -0.18727709152303595,
                        -0.10033606039877807,
                        0.06838920925715752,
                        -0.13655409122148487
                    ],
                    [
                        -0.05873313018887805,
                        -0.08411498576418605,
                        0.016342749058827433,
                        0.17648945812820976,
                        -0.05808269039596001,
                        -0.0402103258707486,
                        -0.06076226899586554,
                        0.21224401156441625,
                        0.24092479826073893,
                        0.10483045120293244,
                        0.06409902564821923,
                        -0.10267277178958908,
                        -0.20253262907195707,
                        0.16232281273452837,
                        0.24581593566048415,
                        0.20961178694169746,
                        0.1733313040206757,
                        -0.13458785468577372
                    ],
                    [
                        -0.043110312463571304,
                        -0.0852921304416141,
                        -0.2549893445103101,
                        -0.11913034000690564,
                        0.19096585735529775,
                        0.16675241867421403,
                        0.2134290673783658,
                        0.22909104690202786,
                        -0.032647975275537255,
                        0.03224326003088562,
                        -0.17272562710205797,
                        -0.0580973026450029,
                        0.04384117648950331,
                        0.008284121757078156,
                        -0.19432756879308594,
                        -0.11627371489970881,
                        -0.012401627332762344,
                        0.040862553233175336
                    ],
                    [
                        -0.12448648689069006,
                        0.21090617164343656,
                        0.05199716669376986,
                        -0.012112797615468629,
                        -0.06998670110176741,
                        -0.05648688375652383,
                        -0.22635934987977252,
                        0.005428937348619156,
                        0.07224659022950564,
                        0.03490941632244915,
                        -0.17962828521606294,
                        -0.06188916737755576,
                        0.04207109902973155,
                        0.027282590047992772,
                        -0.22679555173854446,
                        0.18962029292498045,
                        -0.0954735300740141,
                        0.0779153811635726
                    ],
                    [
                        -0.196281102852495,
                        0.09800670526834232,
                        0.08921481037334561,
                        -0.012925769674917487,
                        0.18909085562513717,
                        0.13408059809901063,
                        0.20349001411497414,
                        0.1800601523194672,
                        -0.038358111278147755,
                        0.12293115210238376,
                        -0.07299007226887588,
                        0.08045686908680777,
                        -0.02170666848506253,
                        -0.23835219882423067,
                        0.08177685594561351,
                        0.012914585801942435,
                        -0.24600554475169217,
                        -0.03256750975241851
                    ],
                    [
                        0.23120262508392503,
                        -0.16226808998476674,
                        0.05024594771744434,
                        -0.2393105151840061,
                        -0.2373240551187777,
                        0.11113939582378035,
                        0.05403429445521618,
                        0.08269351607271508,
                        -0.1032175102852349,
                        0.020372534078206772,
                        0.20673036077840296,
                        -0.16251263133939392,
                        -0.19223938746508054,
                        -0.07618115437672443,
                        0.0682869655524937,
                        0.02092911718659829,
                        0.0024146397801672603,
                        0.24256800533743889
                    ],
                    [
                        -0.09853930124574345,
                        -0.1874299698653047,
                        0.10289021602130705,
                        0.26499903355478344,
                        0.12683106049170267,
                        -0.09027361240485302,
                        0.17123102955694947,
                        0.0900467541880629,
                        0.10426846819164814,
                        -0.17239331406499328,
                        0.13837891040436318,
                        -0.12064937991179833,
                        -0.0006060298049964663,
                        0.17751272664264722,
                        0.039647537751088036,
                        -0.21746901056143236,
                        0.032341368920479396,
                        -0.029010054933729046
                    ],
                    [
                        0.007557929193630741,
                        -0.08484175217366507,
                        -0.19453986900842196,
                        -0.03366371269397053,
                        0.21727055657884897,
                        -0.1725618022693609,
                        0.12250262716693539,
                        0.17172959270999266,
                        0.2197178834983054,
                        -0.035212980710132985,
                        0.135701638361366,
                        -0.1511535429455896,
                        -0.26494567897633176,
                        0.02355065823165048,
                        -0.2371116715812424,
                        0.15168718428875366,
                        -0.19796973438162094,
                        0.13506182914791176
                    ],
                    [
                        0.03988638103110659,
                        -0.13609114454914814,
                        -0.16996129037820967,
                        -0.22651083745448408,
                        -0.06933877702046948,
                        0.07189280222807382,
                        -0.2091692965603622,
                        0.037694572615108946,
                        0.0459263871628226,
                        -0.12741743506134215,
                        0.21595584209132213,
                        0.03380120519492491,
