{
    "file_type": "Only weights",
    "model": {
        "name": "loadtest",
        "type": "SequentialModel",
        "input_shape": 30,
        "layers": [
            {
                "type": "FullyConnected",
                "name": "Default FCLayer name",
                "units": 10,
                "activation": "Linear",
                "kernel": [
                    [
                        0.095021304187424,
                        -0.33427735593846614,
                        0.011445092132441326,
                        -0.3342971980889705,
                        -0.3714764332084011,
                        -0.20333533829131306,
                        -0.3005800778578954,
                        -0.3396286145718318,
                        0.09398050570318517,
                        -0.3153315077751485
                    ],
                    [
                        -0.30276255494053367,
                        -0.35565903211175043,
                        0.18453633727554875,
                        0.324108127486609,
                        -0.0719156963126234,
                        -0.2248202897340261,
                        -0.046320428788951706,
                        -0.32005900285668826,
                        -0.05650288174011053,
                        -0.20421356015479855
                    ],
                    [
                        -0.1408307146361411,
                        0.15452447180899098,
                        -0.33648301065368297,
                        -0.3190132900836654,
                        0.21852314200191703,
                        0.18180659784359354,
                        0.09376936375008305,
                        0.09074778782345,
                        -0.1548632220263152,
                        0.08828658335592082
                    ],
                    [
                        -0.37401539686724294,
                        0.1057275063628752,
                        -0.04123108630742589,
                        0.38334606618233125,
                        0.13914963189077645,
                        -0.12284419733677865,
                        0.15423909995722962,
                        -0.10769493701127164,
                        0.27729682813494216,
                        -0.21325900978576362
                    ],
                    [
                        -0.1437755141724174,
                        0.3136865878864118,
                        0.06117187936315993,
                        0.32032301300763466,
                        0.02459425147014177,
                        -0.35391268820501753,
                        0.03905722415344143,
                        -0.3762186967779004,
                        0.04907331216596117,
                        -0.14403524706314982
                    ],
                    [
                        0.12595935197446284,
                        -0.08481388735343609,
                        0.09058432284192153,
                        0.0406076173503131,
                        0.2299748826576674,
                        0.04487442858129048,
                        -0.3842536961182898,
                        0.3581959078138859,
                        0.3423838251993806,
                        -0.0787038070752471
                    ],
                    [
                        -0.1520862958573505,
                        0.015407753035665162,
                        -0.044151390866383866,
                        0.2364759171167654,
                        0.38465899838370854,
                        0.13208162871864226,
                        0.10329738232322583,
                        -0.32641905479683525,
                        0.2528419223641729,
                        0.2586580018777985
                    ],
                    [
                        0.2876039872306454,
                        0.19203788041325043,
                        0.3319277607720187,
                        0.24637055949881337,
                        -0.2531713823252347,
                        -0.24363230796032878,
                        0.34090375517288274,
                        0.13344554632011585,
                        -0.2662001052227158,
                        0.3556762340693115
                    ],
                    [
                        -0.1455847196530108,
                        -0.12413893599947401,
                        0.22437735369073264,
                        0.17029815977882157,
                        -0.1563896741469877,
                        -0.12557275040490723,
                        -0.1636087814398693,
                        0.3188227458583861,
                        0.37382612690516015,
                        0.24865379889263728
                    ],
                    [
                        0.17974893930980762,
                        0.31405284884578133,
                        -0.058128425137932316,
                        -0.020129433783943496,
                        -0.25884863585252493,
                        -0.012186622433434047,
                        -0.22326041329970725,
                        0.18955302637185145,
                        0.035330521094818435,
                        -0.03466051935919129
                    ],
                    [
                        -0.327670590215145,
                        -0.09824096504417118,
                        0.12793479315382905,
                        0.29205339321348234,
                        -0.36219106368853715,
                        -0.3075933334816386,
                        -0.017278859934698687,
                        0.1717134057539379,
                        0.323466385364949,
                        -0.04233036266538509
                    ],
                    [
                        0.15004699277457523,
                        -0.1490713887413624,
                        0.0679759955763069,
                        0.21770215514874525,
                        -0.09342087001952715,
                        0.04015705093022859,
                        -0.18162393620398992,
                        0.07575985989865985,
                        0.2484853639789616,
                        -0.04233852087998313
                    ],
                    [
                        0.03738085151041315,
                        0.18262939064873407,
                        -0.04642400213637149,
                        0.1855725595142148,
                        -0.3154685704033351,
                        -0.037542203854026956,
                        0.2495703247498977,
                        0.34959911739438787,
                        0.29942521427040025,
                        0.3800769872888231
                    ],
                    [
                        0.31334786430339356,
                        0.14620931721221453,
                        -0.3192335725244806,
                        0.3362590555126729,
                        0.16230154654128603,
                        -0.34028504349629274,
                        -0.11183694592395999,
                        -0.2825423146872176,
                        0.16706252327438675,
                        -0.04820282822351224
                    ],
                    [
                        0.05166138560018202,
                        0.2313815614788085,
                        -0.340964486744717,
                        0.07607262663883646,
                        -0.09158929043772568,
                        -0.14361230662676755,
                        0.29443083690938066,
                        0.3626026333023026,
                        -0.06280661590706632,
                        0.09995642133413413
                    ],
                    [
                        -0.14392536085059943,
                        -0.2780697419696798,
                        -0.23315606947798792,
                        -0.3688592848930619,
                        0.016989273664274385,
                        -0.3555588415371673,
                        -0.11167726595086869,
                        -0.019318921304975256,
                        0.34539394340295504,
                        -0.0936577596827296
                    ],
                    [
                        -0.08115327383308713,
                        0.23863458454786746,
                        0.06640768364390048,
                        0.06242594285261338,
                        -0.22819409070149738,
                        0.07718255158563725,
                        0.3145414250993873,
                        -0.3134340312783921,
                        0.29497042527271333,
                        -0.15698042206048682
                    ],
                    [
                        0.1976418658592637,
                        0.33148980333801303,
                        -0.19659817059802379,
                        0.3102165748685983,
                        0.30220746057475134,
                        0.002621320897301549,
                        0.3454332625441223,
                        -0.19096598295536196,
                        0.37835796425637225,
                        0.3073977628825789
                    ],
                    [
                        0.11093423150583431,
                        0.2391312384522566,
                        0.17911884193025296,
                        -0.3345964675474715,
                        0.2647343953901924,
                        -0.17981195682031315,
                        0.0458614823899266,
                        0.38482209578033355,
                        -0.07260950528594101,
                        0.25484244298875514
                    ],
                    [
                        -0.33484144311233266,
                        0.30070678942034434,
                        0.15417191696829602,
                        0.17372407624997976,
                        -0.17700788404329207,
                        0.13233995988377178,
                        -0.036877076890822036,
                        -0.3759223743122738,
                        -0.118347276735704,
                        -0.2669648985042793
                    ],
                    [
                        0.33985676993396763,
                        -0.15263820364604735,
                        0.2878195253269602,
                        -0.35268086260358805,
                        0.04791385915189211,
                        -0.17154372762162173,
                        -0.07345758224970778,
                        -0.21193848429131493,
                        -0.11566825016996352,
                        -0.1700711799833447
                    ],
                    [
                        0.31020430056353543,
                        -0.2320038323909778,
                        -0.18046919029033234,
                        -0.05334421073181467,
                        -0.20716174419801772,
                        0.20224527471636655,
                        -0.16306215605398078,
                        0.11875237112965564,
                        -0.009727493853750768,
                        0.3158881357611688
                    ],
                    [
                        0.23685336313110705,
                        -0.2870264293319698,
                        -0.36172947889133794,
                        0.20467566180597763,
                        0.10864310478730693,
                        0.09820831014014747,
                        0.24206957850579802,
                        0.10501336341431211,
                        0.0708614856615652,
                        -0.11957251381583633
                    ],
                    [
                        0.2504566685922932,
                        -0.31702751477982105,
                        0.28319920471391014,
                        0.15234293240014285,
                        0.03994165237422104,
                        0.24014555288408013,
                        -0.3860752266141348,
                        -0.32322234100011527,
                        0.20417013207332202,
                        0.13852601767936856
                    ],
                    [
                        0.2600498663251284,
                        0.1776714042573756,
                        0.03309571119785082,
                        -0.1890320876607352,
                        -0.11260485421935124,
                        0.13095836554416174,
                        -0.3201051977343643,
                        0.027461840108895907,
                        0.0593199414528518,
                        -0.2801431056182592
                    ],
                    [
                        0.24159816828644676,
                        0.1245168844144866,
                        -0.14799757485219098,
                        0.013406312673759357,
                        -0.09928156033569202,
                        -0.20109656211740332,
                        0.38026803480717375,
                        -0.019130194397947275,
                        -0.13542938718417635,
                        0.30694679359780386
                    ],
                    [
                        -0.00899231962782826,
                        0.13510349751832174,
                        0.05291970459340528,
                        0.34847448749875976,
                        -0.06649773784176255,
                        0.26665201018784557,
                        -0.16357099763701152,
                        0.008990804202984204,
                        0.18434087739517424,
                        -0.10295888091245131
                    ],
                    [
                        -0.29027922058268824,
                        -0.2303847049013498,
                        0.10071522185302911,
                        0.35040924752706915,
                        -0.07451207664149734,
                        -0.18978557182745073,
                        0.2787382959186916,
                        -0.3323365598575265,
                        -0.14427171897509566,
                        -0.07150441033513799
                    ],
                    [
                        -0.15436096859382642,
                        -0.08066664567131454,
                        -0.011176347020843636,
                        0.01940617345315515,
                        -0.27111838935448157,
                        -0.2450552683953224,
                        -0.06374930482968971,
                        -0.3345699856079227,
                        0.16448745454358737,
                        -0.24711704818249694
                    ],
                    [
                        0.12223191550127588,
                        0.2616582256380765,
                        -0.1290570027477107,
                        0.2247212316312014,
                        -0.032763154173314435,
                        -0.020468954325130462,
                        -0.01653311445780914,
                        -0.19182014273813006,
                        -0.32355621461239337,
                        -0.24985926446148107
                    ]
                ],
                "bias": [
                    0.0,
                    0.0,
                    0.0,
                    0.0,
                    0.0,
                    0.0,
                    0.0,
                    0.0,
                    0.0,
                    0.0
                ]
            },
            {
                "type": "FullyConnected",
                "name": "Default FCLayer name",
                "units": 5,
                "activation": "Linear",
                "kernel": [
                    [
                        -0.5989411708972806,
                        -0.09105738387370477,
                        -0.03251163141455038,
                        0.5982761086291947,
                        0.15116345228823658
                    ],
                    [
                        0.18163497666394957,
                        0.5005361369467404,
                        -0.21972461800655635,
                        -0.5025155931833586,
                        0.33840145012890976
                    ],
                    [
                        -0.026355786973715767,
                        0.22850323013604756,
                        -0.6271098576198378,
                        -0.443221465900524,
                        0.6011417280510792
                    ],
                    [
                        -0.5710780448206957,
                        -0.48372690269420016,
                        0.010666454433039596,
                        -0.6297073087557896,
                        -0.15051154975048225
                    ],
                    [
                        -0.41057252552418055,
                        -0.19168159808265062,
                        -0.17483414514983342,
                        -0.5817838754774023,
                        -0.5373771421746061
                    ],
                    [
                        0.09739830029510599,
                        -0.6161515787279891,
                        -0.1367447391188883,
                        -0.11484242907381681,
                        0.6278796556148266
                    ],
                    [
                        0.576234902550436,
                        0.3496518129762731,
                        0.18419838278444933,
                        0.40638250397442055,
                        0.48725106811174823
                    ],
                    [
                        -0.2833017516732236,
                        -0.06246979084907056,
                        0.40819445712723146,
                        -0.3930695757448735,
                        0.40912803031859013
                    ],
                    [
                        0.3256523460179759,
                        0.04137172130567246,
                        0.46544033784892347,
                        0.4985146322589934,
                        0.45747643890530043
                    ],
                    [
                        -0.04119815479916378,
                        0.5306622351378084,
                        0.6270718442297804,
                        -0.11424783054414567,
                        -0.12241835078667651
                    ]
                ],
                "bias": [
                    0.0,
                    0.0,
                    0.0,
                    0.0,
                    0.0
                ]
            },
            {
                "type": "FullyConnected",
                "name": "Default FCLayer name",
                "units": 2,
                "activation": "Softmax",
                "kernel": [
                    [
                        -0.21845031287049044,
                        0.46269325876671896
                    ],
                    [
                        0.7791097882908646,
                        -0.08110443114393329
                    ],
                    [
                        -0.8207930569342708,
                        0.34240113681385975
                    ],
                    [
                        -0.007934330235059295,
                        -0.4582142341455813
                    ],
                    [
                        0.03692309641676561,
                        -0.6139424951849303
                    ]
                ],
                "bias": [
                    0.0,
                    0.0
                ]
            }
        ]
    }
}